svm_type c_svc
kernel_type rbf
gamma 0.0555556
nr_class 5
total_sv 217
rho 0.818315 0.682107 0.668584 0.592958 -0.448001 -0.473941 -0.604824 -0.0466854 -0.279547 -0.244695
label 0 1 4 3 2
nr_sv 24 78 43 41 31
SV
0.5961447203141155 0.5379831897614179 0.5332478517460795 0.5816516707053954 4:-2 5:2 6:2 7:-1 8:-1 9:0.149902 10:-0.906738 11:0.456543 12:1.375 13:0.4375 14:0.3125 15:-0.0764771 16:0.519104 17:-0.851074 18:-0.019104 
0.4396594041011325 0.409837411288741 0.4079142749200894 0.3889142648107937 1:-2 2:-2 3:-1 4:-3 5:-3 6:-4 7:-1 9:0.150879 10:-0.908691 11:0.453613 12:0.1875 13:0.1875 14:-0.5 15:-0.0760498 16:0.519104 17:-0.851135 18:-0.0189209 
0.7282403765111272 0.6438463884786522 0.6359631972135651 0.688266280077954 2:-4 3:-4 4:-2 5:-1 6:1 9:0.144531 10:-0.901855 11:0.456543 12:0.25 13:0.25 14:0.9375 15:-0.0756226 16:0.519043 17:-0.851196 18:-0.0186157 
0.5217119289398147 0.4791579097363862 0.4732120383467264 0.4836778672991448 2:-5 3:-1 4:-2 5:-2 6:-1 8:-1 9:0.146484 10:-0.904297 11:0.468262 12:1.125 13:-0.3125 14:0.875 15:-0.0755615 16:0.518127 17:-0.851807 18:-0.0177612 
0.9980055078115856 0.8921818025152919 0.8845429145114849 0.9067127768587634 2:-2 3:-1 4:1 5:3 6:3 7:1 8:1 9:0.151855 10:-0.905273 11:0.469238 12:-1.4375 13:-1.5625 14:0.125 15:-0.0772705 16:0.517212 17:-0.852234 18:-0.0155029 
0.6212473537850393 0.5826716840005003 0.5779815087822198 0.5572041444678765 2:-1 3:2 4:-2 5:-1 7:1 8:-1 9:0.143555 10:-0.897461 11:0.465332 12:-0.1875 13:0.5625 14:0.5625 15:-0.0762329 16:0.516113 17:-0.852966 18:-0.0154419 
0.1507062320968104 0.1089146353598684 0.1079646924106836 0.07117690418095277 1:-2 2:-2 3:-1 4:-3 5:-4 6:-2 7:-1 8:-1 9:0.145996 10:-0.901855 11:0.470703 12:-0.3125 13:-0.25 14:0.3125 15:-0.0753174 16:0.514771 17:-0.853882 18:-0.0142212 
1 1 1 1 2:5 5:-2 6:1 7:-2 8:-1 9:0.140625 10:-0.895996 11:0.472656 12:-0.1875 13:0.25 14:1.1875 15:-0.0750122 16:0.514526 17:-0.854065 18:-0.013916 
0.3012672007254839 0.2784186313100423 0.2761817011275819 0.408195439425687 1:-1 2:-2 5:1 6:-1 8:-3 9:0.130859 10:-0.907227 11:0.470215 12:0.5 13:0.0625 14:-0.1875 15:-0.0733643 16:0.514282 17:-0.85437 18:-0.0123901 
1 0.9940933529209597 0.9853084128279116 0.904701770656609 1:-3 2:-2 3:-2 4:-1 5:4 6:2 7:1 8:1 9:0.13623 10:-0.898438 11:0.474609 12:-0.1875 13:-1.3125 14:-0.125 15:-0.0731812 16:0.513977 17:-0.854614 18:-0.0111694 
1 1 1 1 1:-2 2:1 3:-5 5:-2 6:-2 7:-1 8:-1 9:0.140625 10:-0.894531 11:0.471191 12:0.625 13:1 14:0.5625 15:-0.072998 16:0.513672 17:-0.854797 18:-0.0111694 
0.05198124369289675 0 0 0 1:-2 2:1 4:-2 6:-4 7:-1 8:-1 9:0.140625 10:-0.898926 11:0.46582 12:0.375 13:-1 14:-0.5625 15:-0.0735474 16:0.513367 17:-0.854919 18:-0.0111084 
0.3220063518697179 0.2251655705723512 0.223698928208316 0.2163957506782947 1:-1 2:-2 3:-1 4:-1 5:-3 6:-4 7:-2 8:-2 9:0.141113 10:-0.897949 11:0.475098 12:0.375 13:0.375 14:1 15:-0.072998 16:0.513 17:-0.855225 18:-0.0106812 
1 1 1 1 1:-4 2:-5 3:-2 4:-2 5:2 6:-3 7:-2 8:-1 9:0.133789 10:-0.907715 11:0.475098 12:0.3125 13:-0.0625 14:-0.125 15:-0.0724487 16:0.513184 17:-0.855164 18:-0.0109863 
0.2889944848822562 0.2465190608319939 0.2421373536642296 0.3702900072687457 1:1 2:1 3:-1 4:1 6:-1 7:-2 9:0.135254 10:-0.897461 11:0.473145 12:-0.1875 13:0.5625 14:-0.625 15:-0.0723877 16:0.512878 17:-0.855347 18:-0.0108032 
1 1 1 1 1:-1 2:-2 3:-2 5:-1 6:6 7:2 8:-1 9:0.128418 10:-0.905762 11:0.48291 12:-0.4375 14:-0.3125 15:-0.072998 16:0.513184 17:-0.855103 18:-0.0115356 
0.4202981210614227 0.37477480667236 0.3705484201832098 0.4975996322898809 1:-2 2:-1 3:1 4:-1 5:-1 6:3 7:-1 8:-1 9:0.144531 10:-0.901367 11:0.479004 12:-0.1875 13:-0.5 14:-0.0625 15:-0.0733643 16:0.513306 17:-0.85498 18:-0.0108643 
0.21752962512154 0.1897743853236707 0.1854096591847489 0.118332593295491 1:-3 2:-2 3:-1 4:1 5:-1 6:-2 7:-1 9:0.133789 10:-0.893066 11:0.477051 12:-0.0625 13:-0.875 14:-0.125 15:-0.0733032 16:0.513367 17:-0.85498 18:-0.0108032 
0 0 0 0.2005868452125523 1:1 3:-2 4:-2 5:-1 6:-1 7:-2 8:-1 9:0.135254 10:-0.901855 11:0.478027 12:0.5 13:-1.5 14:-0.25 15:-0.0733643 16:0.513367 17:-0.85498 18:-0.0103149 
1 1 1 0.9127514114718814 2:3 4:-2 5:1 6:-3 9:0.134766 10:-0.90625 11:0.47998 12:0.8125 13:0.25 14:-0.375 15:-0.074646 16:0.513123 17:-0.855042 18:-0.0098877 
0.3069027196008258 0.2898684234074297 0.2845457236002786 0.2159187000860278 1:-1 3:-1 4:-3 5:-1 6:-3 7:-1 8:-3 9:0.141602 10:-0.899414 11:0.474609 12:-0.3125 13:-0.25 14:-0.875 15:-0.074585 16:0.513428 17:-0.854797 18:-0.0101929 
0.6398007950571711 0.6355323604759328 0.6300147498458362 0.6092183761746024 1:-2 2:-1 4:-1 5:-2 6:-5 7:-2 8:-1 9:0.13916 10:-0.911133 11:0.472168 12:-0.8125 13:-0.5 14:-0.25 15:-0.0753174 16:0.514221 17:-0.854309 18:-0.0100098 
0.8677319309020095 0.7822003422500297 0.7737292295333786 0.6851894209384279 2:2 3:-1 5:-2 6:1 7:-3 9:0.146484 10:-0.903809 11:0.477539 12:-1.5 13:-1.75 14:-0.1875 15:-0.0770874 16:0.51355 17:-0.854553 18:-0.00958252 
1 1 1 0.9881864597238614 1:-3 2:-5 3:-3 4:-2 5:-3 6:1 7:-2 8:-2 9:0.140625 10:-0.889648 11:0.478516 12:1 13:0.3125 14:0.1875 15:-0.0778198 16:0.511963 17:-0.855469 18:-0.00854492 
-0.1787916265476924 0.5427124806598412 0.5173518359211493 0.3916825861388811 1:-4 2:-16 4:3 5:8 6:4 7:4 8:4 9:0.140625 10:-0.870117 11:0.541504 12:1.875 13:-0.4375 14:0.5 15:-0.148743 16:0.464355 17:-0.863953 18:0.125916 
-0.1819715672075925 0.5517915562351704 0.5264226608692326 0.3947019487794431 1:-14 2:-14 3:-21 4:-30 5:-11 6:-8 7:-4 8:1 9:0.146484 10:-0.862305 11:0.543945 12:-0.375 13:2.1875 14:0.5 15:-0.147034 16:0.463745 17:-0.86438 18:0.127075 
-0.1817305036022056 0.55169977584069 0.5256593256776341 0.3954672267235148 2:-3 3:4 5:-9 6:-12 7:-1 8:10 9:0.130371 10:-0.854492 11:0.541992 12:0.8125 13:2.5 14:-0.25 15:-0.145874 16:0.463318 17:-0.864868 18:0.127136 
-0.1812651308638363 0.5517975869325537 0.5305034946525356 0.39546903997706 1:1 2:7 3:-8 4:-7 5:-9 6:-7 7:-3 8:-6 9:0.15625 10:-0.869629 11:0.535156 12:-1.1875 13:-0.6875 14:-1.125 15:-0.151611 16:0.464233 17:-0.864563 18:0.11853 
-0.1818322435638303 0.5520791286453792 0.525742543944375 0.3948860704193167 1:10 2:-6 3:-19 4:-14 5:-16 6:-5 7:-2 8:3 9:0.148438 10:-0.850586 11:0.53418 12:0.375 13:1.3125 14:-0.125 15:-0.151428 16:0.464111 17:-0.864807 18:0.117432 
-0.1815983070415183 0.5520795949872652 0.5256578160380354 0.395314723237611 1:-8 2:-26 3:12 4:-3 5:-4 6:-6 7:-5 8:-7 9:0.154297 10:-0.866211 11:0.538086 12:-0.25 13:1.5 14:1.0625 15:-0.150696 16:0.463928 17:-0.86499 18:0.117554 
-0.1817391524433204 0.5517966194862074 0.5261651623722717 0.3954432263539577 2:-7 3:-22 4:-12 5:-11 6:-8 7:-2 8:-10 9:0.154297 10:-0.869141 11:0.537109 12:-0.125 13:1.75 14:-0.375 15:-0.14978 16:0.4646 17:-0.864807 18:0.117859 
-0.1818038099806608 0.5520536645586891 0.5264175015478756 0.3954164316395844 1:5 2:10 3:-5 4:-5 5:-15 6:-10 7:2 8:15 9:0.169434 10:-0.867188 11:0.547852 12:-0.4375 13:-0.75 14:-0.9375 15:-0.148926 16:0.463745 17:-0.865601 18:0.11615 
-0.1817483015346781 0.5518177580030199 0.5264167062081577 0.3954114881476168 1:-5 2:33 3:4 4:-1 5:3 6:8 7:2 8:-4 9:0.139648 10:-0.855957 11:0.547363 12:0.75 13:3.1875 14:1.9375 15:-0.145264 16:0.462402 17:-0.866821 18:0.117126 
-0.1811830466014158 0.5520280671311573 0.5257808827334833 0.3953871232638636 1:4 2:-10 3:1 4:2 5:13 6:3 7:-1 8:9 9:0.139648 10:-0.866699 11:0.555176 12:1.625 13:1.8125 14:0.75 15:-0.141174 16:0.463379 17:-0.867004 18:0.116882 
-0.1817048995611978 0.5520863790952303 0.5262748666403122 0.395319298165779 1:-6 2:3 3:25 4:4 5:2 6:1 8:2 9:0.131836 10:-0.850586 11:0.537598 12:0.875 13:0.3125 14:-1.0625 15:-0.138977 16:0.462891 17:-0.86731 18:0.119263 
-0.1811719568982942 0.5524244392357319 0.5263369649415685 0.3952674287829674 1:1 2:5 3:5 4:-3 5:-9 6:7 7:5 8:6 9:0.129883 10:-0.867188 11:0.545898 12:-0.125 13:1.1875 14:0.125 15:-0.137573 16:0.46344 17:-0.867371 18:0.118225 
-0.1816608361060692 0.5517695484090637 0.5257083490739332 0.3948775318989644 1:-5 2:-13 3:6 4:10 5:8 6:-5 7:-2 9:0.128418 10:-0.85498 11:0.543945 12:0.6875 13:1 15:-0.13739 16:0.462952 17:-0.867737 18:0.117798 
-0.1817491377927282 0.552078875209454 0.5264315161317853 0.3952726799212308 1:-7 2:-4 3:33 4:12 5:13 6:7 7:-4 8:-22 9:0.14502 10:-0.872559 11:0.557129 12:-0.75 13:-1.5 14:-0.0625 15:-0.137207 16:0.462341 17:-0.868042 18:0.117981 
-0.1817037931006521 0.5515927367219412 0.5262597539414451 0.3952459157594828 1:-4 2:9 3:9 4:-4 5:-18 6:-3 8:1 9:0.128418 10:-0.87207 11:0.554688 12:-2.25 13:1.4375 14:1.6875 15:-0.13623 16:0.462463 17:-0.868103 18:0.118286 
-0.1813481031306816 0.5520805021348905 0.5257163512143128 0.3954062032368341 1:15 2:-25 3:-13 4:-4 5:9 6:8 7:-4 8:-23 9:0.115723 10:-0.842285 11:0.552246 12:0.6875 13:-0.375 14:-0.375 15:-0.134338 16:0.462036 17:-0.868652 18:0.118103 
-0.1843166503284958 0.5511205251394039 0.5251231563812918 0.3950559004718199 1:-3 2:8 3:-4 4:1 5:3 6:4 7:-1 8:6 9:0.128418 10:-0.861328 11:0.548828 12:-0.875 13:-0.3125 14:1.4375 15:-0.134094 16:0.46228 17:-0.86853 18:0.118225 
-0.1817978211479518 0.552080656819814 0.5264113427819993 0.3952726799212308 1:-6 2:8 3:6 4:9 5:11 6:25 7:12 8:24 9:0.114746 10:-0.832031 11:0.546875 12:3.125 13:-0.5625 14:-0.5 15:-0.133606 16:0.461609 17:-0.868958 18:0.11853 
-0.1819401057406367 0.5520807853150233 0.5264278690208073 0.3947539878292391 1:-9 2:-1 3:6 4:7 5:12 6:-4 7:-6 8:-7 9:0.108887 10:-0.818848 11:0.533691 12:1.4375 13:0.1875 14:-0.0625 15:-0.13208 16:0.461182 17:-0.869324 18:0.11908 
-0.1829223619837959 0.569406337812886 0.5384164480679714 0.4928127468840787 1:-3 2:1 3:11 5:-1 6:-4 7:-3 8:-1 9:0.12793 10:-0.851074 11:0.554688 12:1.125 13:0.6875 14:0.75 15:-0.133301 16:0.459961 17:-0.869934 18:0.117676 
-0.1806510918995146 0.5486029186952774 0.5224438385268097 0.3923512964707275 1:-2 2:16 3:13 4:11 5:7 6:5 7:-4 8:7 9:0.125977 10:-0.864746 11:0.555664 12:-1.125 14:0.0625 15:-0.13324 16:0.460205 17:-0.869873 18:0.11731 
-0.3417807082766162 0.5358244550893065 0.5270076359644222 0.396263030918699 1:-3 2:-3 3:-6 4:-2 5:-6 6:-4 8:-4 9:0.130371 10:-0.858887 11:0.558105 12:0.3125 13:1.875 14:1 15:-0.132874 16:0.459778 17:-0.8703 18:0.116577 
-0.1817208874215475 0.5520716671098407 0.5264133587098503 0.3954209189583698 1:7 2:15 3:17 4:9 5:-3 6:3 7:6 8:14 9:0.11377 10:-0.854004 11:0.546387 12:-1 13:2.0625 14:-0.6875 15:-0.131592 16:0.460449 17:-0.870178 18:0.116089 
-0.1817122150865561 0.5517933925378056 0.5257197071750657 0.395447210691502 1:-3 2:-53 3:10 4:7 5:3 6:-2 7:1 8:4 9:0.120117 10:-0.85498 11:0.561035 12:0.3125 13:0.5 14:-0.1875 15:-0.131836 16:0.46051 17:-0.870178 18:0.115662 
-0.1817001929805223 0.5569899697395055 0.5257163334450435 0.3962787362524614 1:-1 2:1 3:-22 4:-5 5:1 6:2 8:2 9:0.117676 10:-0.845215 11:0.551758 12:2.125 13:-2 14:-1 15:-0.131287 16:0.460083 17:-0.870422 18:0.115784 
-0.1806660008032279 0.5486125223238523 0.5224569614660309 0.3927969274288697 1:5 2:18 3:12 4:8 5:7 6:4 7:1 8:6 9:0.12793 10:-0.869629 11:0.554199 12:-1.5625 13:-0.8125 14:0.6875 15:-0.13092 16:0.460999 17:-0.870056 18:0.115723 
-0.1817462929452554 0.5520583592632042 0.5257531681382425 0.3947053977879292 1:3 2:5 3:-1 4:2 5:5 6:-4 7:-10 8:-19 9:0.128906 10:-0.865234 11:0.553711 12:-1.125 13:-1 14:1.125 15:-0.131165 16:0.461243 17:-0.869812 18:0.116089 
-0.1813469912510929 0.552068983392773 0.5256587094240868 0.3948264798935594 1:-6 2:-25 3:-31 4:-8 5:28 7:-3 8:-1 9:0.126465 10:-0.878418 11:0.564453 12:-0.0625 13:1.6875 14:-1 15:-0.130493 16:0.463745 17:-0.868469 18:0.116882 
-0.181584323502162 0.5518157930265726 0.5261418065027518 0.3947051872070961 1:16 2:-18 3:1 4:-2 5:8 7:-4 8:9 9:0.109863 10:-0.853516 11:0.540527 12:0.8125 13:1.75 14:-0.125 15:-0.129822 16:0.463501 17:-0.868713 18:0.11676 
-0.1810011236809723 0.5511753623523417 0.5251324995865653 0.3942854531461465 1:-8 2:-9 4:1 5:12 6:3 8:2 9:0.103027 10:-0.841309 11:0.553223 12:1.375 13:0.75 14:-0.625 15:-0.128479 16:0.463684 17:-0.868774 18:0.117249 
-0.1818026804051952 0.5520822715712397 0.5264187272195922 0.3954446941486668 1:-3 2:15 3:-12 4:-13 5:-6 6:-9 7:-7 9:0.109863 10:-0.841309 11:0.54834 12:2.625 13:-1.25 14:0.75 15:-0.128479 16:0.463257 17:-0.868896 18:0.117981 
-0.1816962995193007 0.5517933901810996 0.5264290925039892 0.395273116368271 2:20 3:40 4:6 5:-5 6:-2 7:-2 8:4 9:0.122559 10:-0.87793 11:0.564453 12:-2 13:-0.25 14:0.9375 15:-0.128845 16:0.463745 17:-0.86853 18:0.118408 
-0.1816646957321963 0.5520816607165299 0.5257530364522893 0.3947178263219465 1:10 2:-20 3:-1 4:5 5:8 6:6 7:3 8:19 9:0.115723 10:-0.85791 11:0.559082 12:0.5625 13:1.875 14:0.125 15:-0.127197 16:0.463501 17:-0.868713 18:0.119812 
-0.1817512121240931 0.5517924573956463 0.5257496791041173 0.3947405168126978 1:-6 2:-17 3:21 4:-1 5:-6 6:-9 7:-3 8:-2 9:0.0893555 10:-0.846191 11:0.538574 12:3.9375 13:-0.75 14:-1.0625 15:-0.125671 16:0.463074 17:-0.869141 18:0.120117 
-0.1817535020009961 0.5519256144915474 0.5262746347847965 0.3951683078003426 1:-5 2:7 3:-12 4:-11 5:-6 6:2 7:1 8:-13 9:0.111816 10:-0.863281 11:0.549805 12:1.5 13:-0.25 14:-0.75 15:-0.126343 16:0.463318 17:-0.868835 18:0.120728 
-0.1811969931492644 0.5520536819239366 0.5264167062899261 0.3953953034866863 1:21 2:30 3:-44 4:-15 6:15 7:7 8:40 9:0.105957 10:-0.862305 11:0.561035 12:-0.8125 13:0.375 14:-1.5 15:-0.12616 16:0.463196 17:-0.868896 18:0.120483 
-0.1816515415318975 0.5517976396591344 0.5257338055940598 0.3955118047625435 1:-10 2:-29 3:1 4:4 5:8 6:-1 7:-1 8:-9 9:0.118652 10:-0.856445 11:0.560547 13:-1.3125 14:-0.5625 15:-0.126343 16:0.46283 17:-0.869141 18:0.120178 
-0.1815774413802906 0.5516947475716922 0.5256815933463891 0.3956922970470385 1:-4 2:-15 3:7 4:2 5:-1 7:2 8:2 9:0.10498 10:-0.865234 11:0.566406 12:-1.0625 13:0.5625 14:0.3125 15:-0.126465 16:0.462891 17:-0.869141 18:0.119995 
-0.1817491377927282 0.5520805618266623 0.5264215805005419 0.3947214896677446 1:-8 2:-16 3:-4 4:11 5:34 6:19 7:6 8:-6 9:0.0991211 10:-0.845703 11:0.55127 12:2.5 13:0.1875 14:0.75 15:-0.126343 16:0.462036 17:-0.869507 18:0.120667 
-0.1809382614238119 0.5493635609328278 0.5240237380342442 0.3935759678263675 1:-8 2:7 3:-8 4:-3 6:-1 7:2 8:-10 9:0.107422 10:-0.856445 11:0.557129 12:-0.25 13:0.6875 14:-0.75 15:-0.12561 16:0.461731 17:-0.869873 18:0.120117 
-0.1813454420590838 0.5520608617783848 0.5287981910849023 0.3983872137124773 1:5 2:8 3:11 4:13 5:8 6:8 7:3 8:-1 9:0.117676 10:-0.858398 11:0.560547 12:0.4375 13:0.3125 15:-0.125488 16:0.461182 17:-0.870117 18:0.120483 
-0.1813409675204007 0.55203992080122 0.5261245616611103 0.3948613520084308 1:-7 2:-20 3:-5 4:3 5:-2 6:-1 7:2 8:-1 9:0.100098 10:-0.84082 11:0.557129 12:1.6875 13:-1.1875 14:-0.3125 15:-0.126709 16:0.46051 17:-0.8703 18:0.120178 
-0.1817253503439834 0.5520857829028372 0.5256521234012154 0.3953953034867253 1:7 2:-5 3:9 4:-6 5:-6 6:-5 7:-1 8:-29 9:0.121094 10:-0.862793 11:0.561035 12:-1.375 13:0.25 15:-0.126587 16:0.460938 17:-0.870117 18:0.120178 
-0.181195945691759 0.5518145845758653 0.5264141916699447 0.3955181578691958 1:7 2:9 3:15 4:-2 5:-10 6:2 7:4 8:14 9:0.101074 10:-0.840332 11:0.583496 12:0.1875 15:-0.126404 16:0.461304 17:-0.869934 18:0.120239 
-0.2001000540656699 0.5525145628458875 0.5264083868230393 0.4344672353625302 1:2 2:-1 3:-8 4:2 5:3 6:7 7:-1 8:-2 9:-0.0136719 10:-0.867676 11:0.531738 12:2 13:0.1875 14:-1.1875 15:-0.107178 16:0.475159 17:-0.854553 18:0.180359 
-0.1820222302303994 0.5519808288606354 0.5274249422512122 0.3974204901176011 1:-4 2:11 3:6 4:4 6:-7 7:-4 8:-3 9:-0.00341797 10:-0.885254 11:0.54541 12:0.25 13:1.3125 14:-0.8125 15:-0.104431 16:0.476013 17:-0.854553 18:0.179565 
-0.1817515227314844 0.5518401371615048 0.5258096658722564 0.3952784666888013 2:7 3:8 4:20 5:36 6:13 7:3 8:3 9:-0.00585938 10:-0.875977 11:0.541016 12:0.125 13:0.375 14:-0.25 15:-0.103516 16:0.476562 17:-0.854309 18:0.179749 
-0.1815963433221869 0.5520594983729914 0.5257499515494137 0.3952751484668231 2:-24 3:-5 4:4 5:3 6:3 7:-5 8:-8 9:0.000488281 10:-0.880859 11:0.538086 12:-1 13:-0.5 14:0.3125 15:-0.102539 16:0.476013 17:-0.854553 18:0.180786 
-0.1816575776602446 0.5517933944407056 0.5264365695830457 0.3947217403083437 1:14 2:16 3:37 4:10 5:4 7:2 8:8 9:-0.00195312 10:-0.876953 11:0.543457 12:0.25 13:1.25 14:0.3125 15:-0.102173 16:0.475708 17:-0.854675 18:0.18103 
-0.1817047976202804 0.552081798996455 0.5258277814104959 0.3953111000334846 1:18 2:27 3:-13 4:-7 5:-4 6:-1 7:-1 8:3 9:0.00439453 10:-0.868652 11:0.539551 12:-1 13:-1.1875 14:1 15:-0.101685 16:0.476196 17:-0.854431 18:0.181274 
-0.1819701035099502 0.5515834789921628 0.5264413649946275 0.3953153951621091 1:1 2:5 3:-1 4:19 5:19 6:4 7:-1 9:-0.000488281 10:-0.888672 11:0.538086 12:-1.3125 13:-0.125 14:-0.25 15:-0.101257 16:0.477234 17:-0.853943 18:0.181091 
-0.1818243321209347 0.5520792575859748 0.5257179841403887 0.3952752710062228 1:-6 2:-12 3:-39 4:-8 5:2 6:1 7:-4 8:-6 9:-0.00683594 10:-0.881836 11:0.540039 12:1.625 13:-0.5 14:-0.1875 15:-0.0994873 16:0.478271 17:-0.853394 18:0.182068 
-0.1815986161832473 0.5520757892743089 0.5264292239782924 0.3953790271416316 1:-12 2:-33 3:16 4:5 5:10 6:-5 7:-1 9:-0.0229492 10:-0.870605 11:0.544434 12:0.625 13:0.0625 14:1.4375 15:-0.0988159 16:0.477844 17:-0.853516 18:0.1828 
-0.1817650209283515 0.5527312642275372 0.5264286493945396 0.3955830866974635 1:-19 2:-11 3:-6 4:-2 5:-2 6:-1 9:-0.0151367 10:-0.870117 11:0.537598 12:-0.0625 13:-0.375 14:-0.125 15:-0.0977173 16:0.478027 17:-0.853455 18:0.183167 
-0.1815251412055252 0.5509527761010671 0.5249345717196725 0.3951719736906797 1:-9 2:-2 3:7 4:-6 5:-12 6:-5 7:-4 8:-2 9:-0.0141602 10:-0.875977 11:0.541016 12:-1.25 13:1.75 14:0.375 15:-0.0976562 16:0.477966 17:-0.853394 18:0.183777 
-0.1833849433572595 0.5517443644290982 0.5254996158029497 0.3975708791536849 2:-11 4:-5 5:5 6:5 7:-3 8:-1 9:-0.00878906 10:-0.888672 11:0.538086 12:-1.125 13:1.125 14:0.1875 15:-0.0985107 16:0.478333 17:-0.853149 18:0.183533 
-0.1791251623347737 0.5440106780525222 0.5187109266410599 0.3903317039962311 1:-4 2:-17 3:1 4:1 5:6 6:10 8:2 9:-0.0175781 10:-0.885254 11:0.532715 12:-0.875 14:-1.3125 15:-0.0980225 16:0.478577 17:-0.853027 18:0.183594 
-0.1819566471389608 0.5497175622453718 0.5245512166833569 0.4015534894336639 1:9 2:3 3:3 4:2 5:5 6:3 7:-2 8:-1 9:-0.0117188 10:-0.881836 11:0.527832 12:0.4375 13:-1.6875 14:0.375 15:-0.0985718 16:0.478516 17:-0.852783 18:0.184631 
-0.1928721043328496 0.5475358026655258 0.5213358057212841 0.3935609994665779 1:-8 2:6 3:-3 4:2 5:1 6:-2 8:-4 9:-0.0131836 10:-0.880859 11:0.533691 12:0.3125 13:-0.6875 14:0.9375 15:-0.0981445 16:0.478394 17:-0.852966 18:0.184265 
-0.1818038100299564 0.5520806567088017 0.5257050695612495 0.3947217409894452 1:-15 2:17 3:8 4:-1 5:4 6:3 7:-3 8:-14 9:-0.0112305 10:-0.884766 11:0.532227 12:1.9375 13:-1.3125 14:-0.0625 15:-0.0979004 16:0.478149 17:-0.853149 18:0.184143 
-0.1808847382675203 0.5497304995818572 0.5236858642250428 0.393636336264688 1:-2 2:15 3:21 5:1 6:2 7:1 8:2 9:-0.00537109 10:-0.895508 11:0.547852 12:-0.5625 13:1.1875 14:-0.0625 15:-0.0971069 16:0.47876 17:-0.852905 18:0.184143 
-0.1819701038110127 0.5520577204903114 0.5261421064763563 0.3952799873860345 1:12 2:36 3:4 5:4 6:3 7:1 8:4 9:-0.00341797 10:-0.877441 11:0.539551 13:-0.625 14:0.75 15:-0.0975952 16:0.478455 17:-0.852783 18:0.18512 
-0.1817220599081584 0.5520531344137337 0.5264290605321951 0.3954064316499968 1:-8 2:-14 3:-11 4:-8 5:3 6:-5 7:-6 8:-10 9:-0.0185547 10:-0.887207 11:0.527832 12:0.5 14:1.9375 15:-0.09729 16:0.478394 17:-0.852905 18:0.184998 
-0.1818027604874685 0.5520805021348907 0.525756384525732 0.3955249966937395 1:-19 2:-72 3:-1 4:-1 5:-3 6:-9 7:-6 8:-10 9:-0.00732422 10:-0.895996 11:0.537109 12:-2.125 13:-1.8125 15:-0.0982056 16:0.478638 17:-0.852173 18:0.187195 
-0.1817122149411617 0.5520530491757533 0.5257195507980076 0.3953952123264659 1:-2 2:20 3:-24 4:-9 5:2 6:1 7:-2 8:-1 9:-0.00195312 10:-0.895996 11:0.537598 12:1.8125 13:0.75 14:0.125 15:-0.0975342 16:0.478455 17:-0.852417 18:0.187073 
-0.1808801571087159 0.5493527845595887 0.5231286207796476 0.4168132882739679 1:-4 2:11 4:2 5:7 6:1 7:1 8:-2 9:-0.0141602 10:-0.874512 11:0.534668 12:0.125 13:-1.125 14:0.75 15:-0.0975952 16:0.47998 17:-0.85144 18:0.187622 
-0.1818038338736848 0.5517890726152491 0.52642893487911 0.3947019487771877 1:6 2:16 3:-4 5:-20 6:-18 7:-8 9:-0.00537109 10:-0.878418 11:0.552734 12:-1.8125 13:0.125 14:0.0625 15:-0.0978394 16:0.480042 17:-0.851196 18:0.188293 
-0.2940232191444456 0.5356065026652469 0.5143197839204312 0.4149003019157649 1:-2 2:-5 4:-3 5:-6 6:-6 7:-3 8:-5 9:-0.0209961 10:-0.882812 11:0.526855 12:0.3125 13:-0.75 14:1.25 15:-0.0949707 16:0.479919 17:-0.851868 18:0.187134 
-0.1818322183007349 0.5520804757440495 0.5257391592295011 0.3947859788057151 1:14 2:11 3:9 4:-14 5:-12 6:2 7:6 8:8 9:-0.0126953 10:-0.881836 11:0.540039 12:0.125 13:-1.625 14:1.375 15:-0.0941162 16:0.479431 17:-0.852234 18:0.187073 
-0.1819106687773942 0.5519781784217774 0.5257238636411179 0.3952078293270936 1:-5 2:5 3:20 4:5 5:12 6:-2 7:-2 8:1 9:-0.0336914 10:-0.901367 11:0.52832 12:-2.1875 13:-1.1875 14:-0.6875 15:-0.0923462 16:0.480164 17:-0.85199 18:0.187134 
-0.1815790975033519 0.5520587281779898 0.5261495448369939 0.3953946154848484 1:-3 2:-31 3:-1 4:-5 5:6 6:-4 8:-3 9:-0.0180664 10:-0.887695 11:0.541992 12:-0.0625 13:-1.3125 14:-0.1875 15:-0.092041 16:0.479858 17:-0.852234 18:0.18689 
-0.1817978211479518 0.5520711809761815 0.5264220973015488 0.3952752655421545 1:-25 2:-41 3:-15 4:-4 5:-5 6:-9 7:-6 8:-4 9:-0.0322266 10:-0.87207 11:0.539551 13:-1.375 14:-0.25 15:-0.0914917 16:0.479858 17:-0.852356 18:0.186768 
-0.1817143089025051 0.5520763705645134 0.5263854469557874 0.3954246962047177 1:-2 2:22 3:34 4:5 5:9 6:6 7:4 8:3 9:-0.0102539 10:-0.880859 11:0.54248 12:0.8125 13:-0.6875 14:-1.75 15:-0.0921021 16:0.479675 17:-0.852356 18:0.186768 
-0.1818061974318175 0.5520763773039367 0.526425547579469 0.3954433364157872 1:7 2:3 3:14 4:6 5:-15 6:-5 7:-4 9:-0.034668 10:-0.891602 11:0.543945 12:1.875 13:-0.125 14:-1.8125 15:-0.0914917 16:0.47937 17:-0.852722 18:0.186218 
-0.184686212522392 0.5507086490250069 0.5238190829299142 0.3942775904321126 1:2 3:6 4:3 5:8 6:-1 7:-2 8:1 9:-0.0302734 10:-0.883301 11:0.53125 12:1 13:0.3125 14:0.125 15:-0.0900879 16:0.47937 17:-0.852844 18:0.18634 
-0.1817904616500589 0.5520859161674936 0.5257199345468726 0.3952752709731048 1:1 2:2 3:26 4:17 5:22 6:6 8:-1 9:-0.0229492 10:-0.881836 11:0.542969 12:1.4375 13:1.5 15:-0.0911865 16:0.479797 17:-0.852234 18:0.187622 
-0.1834892144871637 0.5509171749284615 0.5275324707333418 0.3973416154693142 1:-3 2:2 3:4 4:-4 5:-11 6:-2 7:1 8:1 9:-0.0458984 10:-0.867188 11:0.531738 12:1.375 13:0.6875 14:-0.4375 15:-0.0905762 16:0.478149 17:-0.853149 18:0.187866 
-0.1808856477356145 0.5501846538608929 0.5235005912358823 0.3930293227150423 1:4 2:10 3:23 4:2 6:7 7:1 8:3 9:-0.0263672 10:-0.861328 11:0.546875 12:-1.4375 14:-0.4375 15:-0.0919189 16:0.475769 17:-0.853821 18:0.190247 
-0.3183959212624049 -1 0.9531364601459988 0.7207885388494508 2:-2 3:-22 4:-70 5:-25 7:-3 8:-3 9:0.0722656 10:-0.866699 11:0.573242 12:-1.6875 13:1 14:1.625 15:-0.0990601 16:0.456848 17:-0.877991 18:0.103149 
-0.3181897261229053 -1 0.9531363773496766 0.7202605339672443 1:-99 2:-27 3:-4 4:-38 5:-5 6:-5 7:-1 8:-10 9:0.0893555 10:-0.862305 11:0.57666 12:-0.0625 13:-0.25 14:0.9375 15:-0.0978394 16:0.455933 17:-0.878418 18:0.104736 
-0.3178253705341995 -1 0.9531364289022661 0.7202390187551482 2:1 3:9 4:6 5:10 6:5 8:-14 9:0.0839844 10:-0.854004 11:0.57373 12:-1.9375 13:-0.875 14:0.75 15:-0.0973511 16:0.456116 17:-0.878296 18:0.105347 
-0.3183594765953995 -1 0.9531364135860493 0.720238972380284 1:13 2:5 3:5 4:44 5:7 6:5 7:-1 8:11 9:0.0756836 10:-0.844727 11:0.578613 12:-0.6875 13:0.3125 14:-1.0625 15:-0.0971069 16:0.457031 17:-0.877991 18:0.104004 
-0.3174651486556283 -1 0.9531364184386879 0.7204006039825791 1:-28 2:-5 3:-26 4:18 5:-1 6:-8 7:-6 8:-4 9:0.0810547 10:-0.859863 11:0.574707 12:-0.4375 13:0.0625 14:-0.5 15:-0.097229 16:0.456604 17:-0.878113 18:0.104675 
-0.3178045917362123 -1 0.9531044331994638 0.7204003138356698 1:-6 2:4 3:-36 4:-24 5:-3 6:-8 7:2 8:-3 9:0.0742188 10:-0.853516 11:0.565918 12:-3.75 13:-4.4375 14:-2.8125 15:-0.0983276 16:0.45813 17:-0.877197 18:0.104675 
-0.3178166699769635 -1 0.9531364134681996 0.7204003137660084 1:28 2:8 3:13 4:-18 5:-10 6:-5 7:3 8:4 9:0.0634766 10:-0.826172 11:0.556152 12:2.4375 13:4 14:0.125 15:-0.0998535 16:0.457642 17:-0.877197 18:0.105591 
-0.3178068151180035 -1 0.9538563183086701 0.7208035016068387 1:-1 2:3 3:11 4:31 5:11 6:4 8:-1 9:0.09375 10:-0.885742 11:0.587891 12:2.5625 13:-0.1875 15:-0.0990601 16:0.45813 17:-0.877197 18:0.104309 
-0.3183821512842064 -1 0.9541467021575626 0.7203987318444067 1:-6 2:1 3:-9 4:-29 5:-5 6:-4 7:2 8:1 9:0.0678711 10:-0.804688 11:0.584961 12:-3.5 13:0.6875 14:-1.25 15:-0.0979614 16:0.455688 17:-0.878357 18:0.10614 
-0.3178021154370129 -1 0.9530591592552291 0.7201993227892745 1:2 2:6 3:-9 4:12 5:-2 6:-4 7:-3 8:-3 9:0.0844727 10:-0.848145 11:0.566895 12:-3.0625 13:0.625 14:3.5 15:-0.10144 16:0.458191 17:-0.876587 18:0.106812 
-0.3179468958563928 -1 0.9531364176261532 0.720427539542188 1:1 2:-3 3:1 4:-102 5:-24 6:-6 7:1 8:2 9:0.0825195 10:-0.861328 11:0.576172 12:-1.6875 13:0.0625 15:-0.100647 16:0.461121 17:-0.875183 18:0.106323 
-0.3177684540071399 -1 0.9539486930583063 0.7207728243046995 1:22 2:2 3:-15 4:-7 5:-6 6:-7 7:-4 8:-1 9:0.0766602 10:-0.882812 11:0.564453 12:-1.3125 13:3.0625 14:-1.625 15:-0.0985107 16:0.462402 17:-0.875 18:0.104309 
-0.3177059991383781 -1 0.9533981343401403 0.7200397445309834 1:-12 2:3 3:17 4:11 5:3 6:-5 7:-1 8:1 9:0.0742188 10:-0.844727 11:0.577148 12:1.0625 13:1.875 14:0.1875 15:-0.0968018 16:0.461853 17:-0.875488 18:0.104187 
-0.3183821512718314 -1 0.9531350822793103 0.7205575941478128 1:-11 2:-6 3:-18 4:-14 5:-5 6:-7 7:-1 8:-4 9:0.0756836 10:-0.86377 11:0.568848 12:0.25 13:-0.0625 14:-0.4375 15:-0.0957642 16:0.461792 17:-0.876099 18:0.100403 
-0.3178184046765563 -1 0.9531370719391236 0.7207465351354174 1:-77 2:-10 3:-5 4:-25 5:-18 6:1 8:-17 9:0.0922852 10:-0.850586 11:0.567871 12:1.3125 13:-1.9375 14:0.9375 15:-0.0934448 16:0.461609 17:-0.87616 18:0.1026 
-0.3177686143682865 -1 0.9531299690596438 0.7205819663472703 1:-17 2:-2 3:10 4:-5 5:-2 6:-5 7:2 8:3 9:0.0668945 10:-0.846191 11:0.586914 12:1.25 13:1.25 15:-0.0944824 16:0.461182 17:-0.876282 18:0.102478 
-0.3178045917362128 -1 0.9531365166287037 0.7203078017321534 1:39 2:-9 3:5 4:-28 5:-18 6:-19 7:-11 8:-3 9:0.0766602 10:-0.842285 11:0.572754 12:0.125 13:0.5 14:-1.25 15:-0.0949707 16:0.461182 17:-0.876282 18:0.102112 
-0.317544135969432 -1 0.9531350013163376 0.7205568015703303 1:45 2:7 3:-2 4:10 5:5 6:1 7:1 8:8 9:0.0527344 10:-0.840332 11:0.581543 12:1.3125 13:-0.8125 14:-0.25 15:-0.0942993 16:0.46228 17:-0.875732 18:0.102539 
-0.31740578472261 -1 0.9531361973622546 0.720546194518755 1:-21 2:-4 3:-2 4:-4 5:-3 6:5 7:4 8:2 9:0.0791016 10:-0.853516 11:0.570312 12:1.0625 13:-0.875 14:0.5 15:-0.0946045 16:0.462402 17:-0.875366 18:0.104553 
-0.3178152375584363 -1 0.9531369151771542 0.7203076851007142 1:-8 2:5 3:22 4:34 5:4 6:-2 7:1 9:0.0644531 10:-0.849121 11:0.570801 12:-0.75 13:-0.3125 14:0.6875 15:-0.0941162 16:0.46167 17:-0.875732 18:0.105286 
-0.3178062287928206 -1 0.9531025530899306 0.7204355336691707 1:8 2:5 3:-19 4:-13 5:-2 6:11 7:2 9:0.0449219 10:-0.839355 11:0.565918 12:-3.25 13:-1.6875 14:-0.8125 15:-0.0941162 16:0.462891 17:-0.875122 18:0.105347 
-0.3180344265582334 -1 0.9531364601412109 0.7202414458672553 1:3 2:11 3:-8 4:40 5:18 6:6 7:1 8:4 9:0.0576172 10:-0.847168 11:0.569824 12:-0.0625 13:0.9375 14:-0.3125 15:-0.0935059 16:0.46283 17:-0.875061 18:0.106262 
-0.3178648339329874 -1 0.9531335025891797 0.7203986960090137 1:-19 2:9 3:24 4:-3 5:-4 6:5 7:2 8:-4 9:0.0727539 10:-0.857422 11:0.572266 12:0.1875 14:0.25 15:-0.0947876 16:0.462891 17:-0.874878 18:0.106689 
-0.3178027178428927 -1 0.9536876207596859 0.7202468235844126 1:4 2:-2 3:-21 4:-12 5:4 6:2 8:2 9:0.0795898 10:-0.847168 11:0.568359 12:3.125 13:-1.1875 14:-1.3125 15:-0.0949707 16:0.462036 17:-0.875244 18:0.106812 
-0.3182954226336955 -1 0.9533915890551233 0.720083321327903 1:-9 2:-3 3:13 4:9 5:1 6:3 7:-1 8:4 9:0.0639648 10:-0.839844 11:0.573242 12:0.1875 13:0.1875 14:-0.6875 15:-0.0947266 16:0.462524 17:-0.875061 18:0.106567 
-0.3178208623982871 -1 0.9531369397868125 0.7204369766568668 1:-9 2:-4 3:-34 4:-51 5:-9 6:-4 7:-3 8:-3 9:0.0688477 10:-0.866699 11:0.570801 12:0.375 13:0.75 14:0.625 15:-0.0946655 16:0.463318 17:-0.874634 18:0.106873 
-0.3183952062851582 -1 0.9531364601408039 0.720400603981564 1:-11 2:-5 3:7 4:45 5:18 6:11 7:2 8:2 9:0.0551758 10:-0.853027 11:0.568359 12:1.75 13:1.625 14:-0.5 15:-0.0944824 16:0.462341 17:-0.875244 18:0.106384 
-0.3178045917055771 -1 0.9531364140954164 0.720241445798387 1:25 2:-8 3:12 4:-23 5:-3 6:-1 7:1 8:-1 9:0.0708008 10:-0.869141 11:0.569336 12:-0.9375 13:-0.3125 14:0.4375 15:-0.0944824 16:0.462585 17:-0.875061 18:0.10675 
-0.3178159857212068 -1 0.9611710828911109 0.7207862465825128 1:-9 2:2 3:17 4:-4 5:2 6:-1 7:-3 8:-2 9:0.0527344 10:-0.848145 11:0.582031 12:1.75 13:-0.5 14:0.1875 15:-0.0946045 16:0.462708 17:-0.875 18:0.106323 
-0.31782011663275 -1 0.95437939505655 0.7412950637495674 2:1 3:12 4:7 5:1 6:-5 8:-1 9:0.0581055 10:-0.852051 11:0.568359 12:0.375 13:-0.125 14:-0.25 15:-0.0946655 16:0.462708 17:-0.874939 18:0.106812 
-0.3183821512926651 -1 0.9531364187457823 0.7207610294248773 1:-15 2:-10 3:-21 4:-28 5:-10 6:11 7:1 8:-4 9:0.0756836 10:-0.877441 11:0.572266 12:1.25 13:0.125 14:1.0625 15:-0.0956421 16:0.462402 17:-0.874878 18:0.107727 
-0.3183821512926667 -1 0.9539528514479716 0.720788538849451 1:-59 2:5 3:-19 4:-41 5:-13 6:-13 7:-8 8:-14 9:0.0561523 10:-0.851562 11:0.572266 12:-0.3125 13:-1.1875 14:-2.125 15:-0.0961304 16:0.462158 17:-0.874939 18:0.10791 
-0.3174006320258643 -1 0.9537248870593411 0.7203104957948446 1:26 2:-12 3:-36 4:-19 5:-8 6:4 7:4 8:5 9:0.0541992 10:-0.854492 11:0.571777 12:1.25 13:-0.125 14:0.375 15:-0.0957031 16:0.461792 17:-0.875183 18:0.107788 
-0.3179897074897473 -1 0.9531352854889814 0.7204276186292373 2:-6 3:-7 4:-1 5:9 6:-11 7:-2 9:0.0634766 10:-0.856934 11:0.574707 12:-2 13:-0.875 14:0.3125 15:-0.0963745 16:0.462708 17:-0.874573 18:0.108765 
-0.3183952062856055 -1 0.9531364601421684 0.7207465351355489 1:24 2:2 3:13 4:18 5:14 6:1 8:-2 9:0.0400391 10:-0.838379 11:0.573242 12:-1.5625 13:-1.0625 14:0.0625 15:-0.09552 16:0.462036 17:-0.874939 18:0.109375 
-0.3177707128447455 -1 0.9531044344525091 0.7204284035680894 1:-6 2:3 3:-24 4:82 5:23 6:12 7:2 8:4 9:0.0581055 10:-0.86377 11:0.578125 12:-1.125 13:1.25 14:-0.5625 15:-0.0949097 16:0.463135 17:-0.874207 18:0.110962 
-0.3178705367335556 -1 0.9531356966291924 0.720545155527758 1:-5 2:-12 3:-27 4:-11 5:3 6:6 8:2 9:0.0576172 10:-0.857422 11:0.560547 12:-0.6875 13:0.25 14:0.0625 15:-0.0947876 16:0.463074 17:-0.874146 18:0.111572 
-0.317816670007662 -1 0.9531365166286991 0.7207611642969771 1:27 2:-2 3:2 4:6 5:-1 6:-3 7:-4 8:-9 9:0.0683594 10:-0.850098 11:0.575684 12:-1.25 13:-1.5625 14:-0.5 15:-0.0939941 16:0.461853 17:-0.874817 18:0.111938 
-0.317838973031973 -1 0.9531364120575064 0.7202602455205205 1:1 3:25 4:26 5:-7 6:13 7:1 9:0.0649414 10:-0.857422 11:0.57666 12:-1.4375 13:0.8125 14:-0.375 15:-0.0941772 16:0.461609 17:-0.875122 18:0.110474 
-0.3183585628752421 -1 0.9536879363157187 0.7202440262163069 1:11 2:-6 3:-15 4:-8 5:-2 6:-7 7:-5 8:1 9:0.0615234 10:-0.841309 11:0.562012 12:1.5625 13:-0.875 14:-0.25 15:-0.0944824 16:0.460266 17:-0.875732 18:0.111206 
-0.3178253704348948 -1 0.9531335509557516 0.7205575852240331 1:20 2:5 3:-18 4:20 5:3 6:2 7:-1 8:3 9:0.078125 10:-0.85791 11:0.582031 12:-0.6875 13:-0.875 14:0.125 15:-0.0945435 16:0.460388 17:-0.875671 18:0.110657 
-0.3178045917360979 -1 0.9536920899593785 0.7202576385847836 1:-6 2:1 3:-16 4:-51 5:-18 6:-11 7:1 9:0.0410156 10:-0.835938 11:0.562012 12:-0.25 13:1.25 14:-0.8125 15:-0.0945435 16:0.460327 17:-0.876038 18:0.108276 
-0.3178360403230868 -1 0.9530603189122443 0.7203708672936899 1:-3 2:4 3:-8 4:8 5:-8 7:2 8:2 9:0.0610352 10:-0.851562 11:0.570312 12:0.625 13:-0.25 14:0.8125 15:-0.0961304 16:0.460693 17:-0.875671 18:0.108459 
-0.331432490029673 -1 -1 0.7555954500862908 1:5 2:5 3:-14 4:-78 5:-5 6:-3 7:5 8:-4 9:-0.125977 10:-0.858398 11:0.527832 12:6.6875 13:-1.625 14:-1.125 15:0.053772 16:0.488953 17:-0.870483 18:0.0189819 
-0.3314913916226082 -1 -1 0.7555135675084468 1:-6 2:2 3:2 4:-19 5:-1 6:2 7:-3 8:-2 9:-0.0947266 10:-0.848145 11:0.560059 12:1.875 13:0.625 14:-1.375 15:0.0524292 16:0.487854 17:-0.871216 18:0.0170898 
-0.3376751864415473 -1 -1 0.7851676715841949 1:-4 2:2 3:-4 4:-4 5:-10 6:-6 7:-2 8:-3 9:-0.0869141 10:-0.883301 11:0.540527 12:2.25 13:-0.75 14:-0.9375 15:0.0518799 16:0.48877 17:-0.870728 18:0.0167847 
-0.331388724720281 -1 -1 0.7555954509322034 1:5 2:9 3:11 4:-128 5:-88 6:-10 7:-5 8:-4 9:-0.0981445 10:-0.876465 11:0.539062 12:-1.5 13:-0.5625 14:-0.6875 15:0.0527954 16:0.488281 17:-0.870972 18:0.0158081 
-0.3312796284655268 -1 -1 0.7555720224693595 1:-6 2:-7 3:-7 4:-10 5:-25 6:-8 7:-3 9:-0.113281 10:-0.896973 11:0.52002 12:3.125 13:1.375 14:-0.5 15:0.0535278 16:0.488464 17:-0.870789 18:0.0158691 
-0.3312796287769772 -1 -1 0.7546061073312131 1:12 2:5 3:-48 4:64 5:8 6:14 7:10 8:8 9:-0.123047 10:-0.880859 11:0.524414 12:3 13:-2.0625 14:0.25 15:0.0579224 16:0.486694 17:-0.87146 18:0.0174561 
-0.3316328269490039 -1 -1 0.7555712703374059 1:5 2:8 3:16 4:85 5:4 6:3 8:-1 9:-0.109375 10:-0.86084 11:0.534668 12:-3.75 13:0.6875 14:0.375 15:0.0583496 16:0.486328 17:-0.871643 18:0.0179443 
-0.3313401519154513 -1 -1 0.7554100593149251 1:-1 2:3 3:39 4:-15 5:-11 6:-1 7:-1 8:-1 9:-0.13623 10:-0.863281 11:0.540527 12:3.1875 13:-1.375 14:-0.9375 15:0.0582886 16:0.485229 17:-0.872314 18:0.0163574 
-0.3313401519154512 -1 -1 0.7555121293589945 1:11 2:18 3:-10 4:-57 5:-45 6:12 7:6 8:7 9:-0.137695 10:-0.915039 11:0.535156 12:-2.4375 13:-0.25 15:0.057373 16:0.487305 17:-0.871155 18:0.0178833 
-0.3309348330346207 -1 -1 0.7554747163567843 1:6 2:10 3:27 4:72 5:20 6:-8 8:4 9:-0.133789 10:-0.880859 11:0.54248 12:5.4375 13:-0.0625 14:-0.9375 15:0.0546265 16:0.486938 17:-0.871521 18:0.0188599 
-0.3314888977880394 -1 -1 0.7546061073425195 1:3 2:9 3:10 4:24 5:12 6:3 7:-5 8:2 9:-0.103516 10:-0.831543 11:0.537598 12:-1.5 13:-0.3125 14:2.5 15:0.0559082 16:0.486145 17:-0.871826 18:0.0228882 
-0.3313370531916124 -1 -1 0.7554100403584484 1:1 2:-13 3:-50 4:-23 5:4 6:3 7:2 8:4 9:-0.127441 10:-0.899414 11:0.541504 12:-3.3125 13:-1.875 14:2.375 15:0.0566406 16:0.487976 17:-0.870667 18:0.0238037 
-0.3309787387180649 -1 -1 0.7555121293579056 1:-6 2:-8 3:-14 4:-30 5:-3 6:-3 8:-1 9:-0.133789 10:-0.908691 11:0.524902 12:0.4375 13:0.5 14:0.4375 15:0.0575562 16:0.487793 17:-0.870667 18:0.026062 
-0.3315086655064005 -1 -1 0.7555954500862908 1:-8 2:-6 3:-69 4:-28 5:-11 6:-7 7:-3 8:-1 9:-0.134277 10:-0.891113 11:0.536621 12:-6 13:-1.1875 14:1.375 15:0.0567017 16:0.487244 17:-0.871033 18:0.0265503 
-0.3315086655064005 -1 -1 0.7555718979923936 1:7 2:11 3:34 4:32 5:-16 6:-8 7:-3 8:-3 9:-0.120605 10:-0.886719 11:0.52832 12:-3.9375 13:-0.5 14:1.375 15:0.0576782 16:0.487061 17:-0.871033 18:0.0275269 
-0.3314888947371226 -1 -1 0.7555920165234928 1:-1 2:-7 3:17 4:-17 6:-6 7:-1 8:-2 9:-0.130371 10:-0.894043 11:0.530273 12:-3.5625 13:1.9375 14:0.25 15:0.05896 16:0.486755 17:-0.871216 18:0.024353 
-0.3315086655064005 -1 -1 0.7554100403590803 1:9 2:7 3:7 4:-32 5:3 6:14 7:9 8:6 9:-0.149414 10:-0.887207 11:0.539062 12:0.5625 13:1.375 14:-1.5625 15:0.0599976 16:0.486206 17:-0.87146 18:0.0229492 
-0.3313887257397532 -1 -1 0.7555850045355491 3:-6 4:16 5:10 6:6 7:2 9:-0.145996 10:-0.852051 11:0.529297 12:5.8125 13:0.8125 14:-0.4375 15:0.0601807 16:0.485107 17:-0.872131 18:0.0217896 
-0.3314892213019213 -1 -1 0.7547128613851077 1:-2 2:-12 4:-12 5:2 6:-13 7:-4 8:-2 9:-0.126953 10:-0.859375 11:0.544434 12:-2.25 13:-1.25 14:0.5 15:0.0599976 16:0.485596 17:-0.871826 18:0.0229492 
-0.3311492897586381 -1 -1 0.7552633812918719 2:11 3:11 4:1 5:7 6:-4 7:-1 8:-4 9:-0.126953 10:-0.841309 11:0.536133 12:0.875 13:-0.1875 14:0.5 15:0.0593262 16:0.484314 17:-0.87262 18:0.0223389 
-0.3315057995201622 -1 -1 0.7554123763109734 1:-1 2:6 3:50 4:55 6:-7 7:-5 8:-5 9:-0.128906 10:-0.88916 11:0.534668 12:-6.4375 13:1.0625 14:0.0625 15:0.0596924 16:0.486816 17:-0.871155 18:0.0230713 
-0.3316328269490038 -1 -1 0.7555121292512395 1:9 2:6 3:82 4:100 5:59 6:12 7:8 8:4 9:-0.143555 10:-0.898438 11:0.538574 12:1.375 13:0.0625 14:0.625 15:0.0600586 16:0.486511 17:-0.871277 18:0.0238037 
-0.3313887247229164 -1 -1 0.7555712703374112 2:-5 3:-26 4:-13 5:-11 6:-7 7:-1 8:5 9:-0.131348 10:-0.851562 11:0.541016 12:4.625 13:0.875 14:1.625 15:0.0598145 16:0.486755 17:-0.871155 18:0.0241089 
-0.3314955911565069 -1 -1 0.7547141414317599 1:-13 2:-33 3:-67 4:-16 5:-12 6:-11 7:-2 8:-4 9:-0.150879 10:-0.87793 11:0.545898 12:-2.625 13:0.6875 14:0.8125 15:0.0601807 16:0.486145 17:-0.871399 18:0.0270996 
-0.331388724722917 -1 -1 0.7555850045070707 1:23 2:58 3:86 4:45 5:45 6:13 7:8 8:6 9:-0.166016 10:-0.898438 11:0.52832 12:4.3125 13:-2.0625 14:-1.8125 15:0.0591431 16:0.48645 17:-0.871338 18:0.0267944 
-0.3311711531825062 -1 -1 0.755572023189739 1:2 2:11 3:16 4:55 5:6 6:-5 7:-8 8:-4 9:-0.157227 10:-0.885742 11:0.538574 12:-5.4375 13:1.75 14:-1.3125 15:0.0567017 16:0.485535 17:-0.87207 18:0.0247803 
-0.3314328524887136 -1 -1 0.7585975425326343 1:2 2:4 3:9 4:6 5:6 6:10 7:5 8:3 9:-0.141113 10:-0.868164 11:0.521973 12:1.0625 13:0.1875 14:0.4375 15:0.0571289 16:0.484924 17:-0.872375 18:0.0240479 
-0.3315086655064005 -1 -1 0.754605685995995 1:-11 2:-14 3:-17 4:9 5:-10 6:-12 7:-5 8:-6 9:-0.132324 10:-0.837891 11:0.541504 12:5.375 13:-2.125 14:-1.3125 15:0.0578613 16:0.483765 17:-0.872986 18:0.0237427 
-0.3314511014259393 -1 -1 0.7555747364933421 1:2 2:-7 3:15 4:-6 6:7 7:1 8:1 9:-0.121094 10:-0.870117 11:0.538086 12:-1.0625 13:-1.375 14:-0.0625 15:0.0582886 16:0.484558 17:-0.872498 18:0.0241699 
-0.3313098880282974 -1 -1 0.7555120076862488 1:-1 2:-10 3:-21 4:47 5:28 6:2 7:3 8:-1 9:-0.148438 10:-0.878906 11:0.538574 12:0.5625 13:0.125 14:-0.3125 15:0.0593872 16:0.484863 17:-0.872253 18:0.0249023 
-0.3309348330345498 -1 -1 0.7554123763108122 1:6 2:9 3:3 4:59 5:6 6:7 7:3 9:-0.137695 10:-0.849609 11:0.541016 12:0.4375 13:-0.125 14:-0.25 15:0.0593872 16:0.484314 17:-0.872559 18:0.024231 
-0.3314514889540997 -1 -1 0.7554102025138743 1:-1 2:4 3:30 4:-66 5:-8 6:-9 7:-2 8:-1 9:-0.12207 10:-0.867188 11:0.530762 12:-3.4375 13:-0.75 14:0.75 15:0.0593872 16:0.486145 17:-0.871521 18:0.0251465 
-0.3314444061235212 -1 -1 0.7547141414308647 1:-6 2:-9 3:-29 4:-39 5:-13 6:-10 7:-5 8:-2 9:-0.133301 10:-0.853027 11:0.550781 12:-2.75 13:1.875 14:0.9375 15:0.0603027 16:0.485535 17:-0.871704 18:0.0279541 
-0.3313370531918894 -1 -1 0.7546569037907978 1:-15 2:-13 3:-17 4:-12 5:-62 6:-21 7:-13 8:-8 9:-0.159668 10:-0.905273 11:0.539062 12:0.75 14:0.625 15:0.0598755 16:0.485718 17:-0.871582 18:0.0289307 
-0.3310823893460984 -1 -1 0.7555120076862947 1:3 2:-2 3:-41 4:-8 5:11 6:4 7:5 8:2 9:-0.125488 10:-0.842773 11:0.532227 12:-5.375 13:-3.375 14:2.125 15:0.0581665 16:0.484558 17:-0.872253 18:0.0310059 
-0.3313098880282974 -1 -1 0.7554100593149251 1:-2 2:4 3:-53 4:-10 5:-12 6:-2 7:-3 9:-0.15625 10:-0.917969 11:0.515625 12:-8.875 13:-1.25 14:2.25 15:0.0522461 16:0.487427 17:-0.87085 18:0.0360718 
-0.3314639447489811 -1 -1 0.7555121565178514 1:39 2:44 3:115 4:127 5:127 6:52 7:23 8:20 9:-0.158691 10:-0.874023 11:0.52832 12:4.1875 13:-0.6875 14:1.5625 15:0.0518799 16:0.484131 17:-0.87262 18:0.0384521 
-0.3312373544617969 -1 -1 0.754605685995995 1:11 2:26 3:40 4:49 5:14 6:24 7:9 8:9 9:-0.160156 10:-0.883301 11:0.53125 12:2.5 13:-3.125 14:-0.625 15:0.0501099 16:0.483337 17:-0.873047 18:0.0406494 
-0.3314888977905175 -1 -1 0.7555918401062416 1:9 2:3 3:-34 4:-34 5:4 6:5 7:2 8:5 9:-0.12793 10:-0.901367 11:0.554199 12:-2 13:-2.5 14:2.375 15:0.0491943 16:0.482483 17:-0.873413 18:0.0450439 
-0.331231860667586 -1 -1 0.7545834302926536 1:-2 2:5 3:15 4:-1 5:2 6:1 7:-1 8:1 9:-0.130859 10:-0.843262 11:0.555176 12:2.1875 13:-0.375 14:0.875 15:0.0500488 16:0.480896 17:-0.874084 18:0.0466309 
-0.3314913804301452 -1 -1 0.7546569037907978 1:-2 2:2 3:-13 4:-75 5:-29 6:-18 7:-5 8:-3 9:-0.157715 10:-0.888184 11:0.543457 12:-2.375 13:1.75 14:0.1875 15:0.052124 16:0.481262 17:-0.873718 18:0.0479126 
-0.4069423179424143 -1 -1 -1 1:22 3:6 4:3 5:1 7:3 8:2 9:-0.124512 10:-0.869629 11:0.532715 12:5.5625 13:1.1875 14:-0.75 15:0.019104 16:0.487671 17:-0.867432 18:0.0969849 
-0.4070385851758473 -1 -1 -1 1:32 2:-6 3:-43 4:-7 5:-5 6:-2 7:-2 8:-2 9:-0.120605 10:-0.886719 11:0.545898 12:-1.5625 13:-1.25 14:-0.1875 15:0.0167847 16:0.488831 17:-0.866943 18:0.0958252 
-0.4062648995079938 -1 -1 -1 1:11 3:15 5:-2 7:1 8:3 9:-0.118164 10:-0.869629 11:0.529785 12:-2.125 13:-0.3125 14:0.25 15:0.0165405 16:0.488525 17:-0.867188 18:0.0953979 
-0.4071897391912109 -1 -1 -1 1:35 2:3 3:-2 4:4 6:-2 7:-2 8:5 9:-0.138184 10:-0.866699 11:0.550293 12:1.25 13:0.3125 14:-0.0625 15:0.0187378 16:0.485352 17:-0.868958 18:0.0950317 
-0.4073554742415933 -1 -1 -1 1:15 2:4 3:-2 4:4 5:-4 6:1 7:1 8:-9 9:-0.135742 10:-0.884277 11:0.546875 12:4.25 13:3.1875 14:3.3125 15:0.0200806 16:0.485352 17:-0.868958 18:0.0948486 
-0.4081599127388052 -1 -1 -1 1:-3 2:11 3:4 4:4 5:1 6:1 7:1 8:1 9:-0.13623 10:-0.877441 11:0.550781 12:-0.3125 13:-2.0625 14:1 15:0.0199585 16:0.485474 17:-0.868591 18:0.09729 
-0.407463407722938 -1 -1 -1 1:-4 2:3 3:8 5:-5 6:-3 7:1 8:8 9:-0.148926 10:-0.839355 11:0.54834 12:2.875 13:0.75 14:-0.25 15:0.0200806 16:0.483887 17:-0.869385 18:0.0984497 
-0.4069256556834943 -1 -1 -1 1:24 2:-10 3:1 4:11 5:2 6:2 7:6 8:9 9:-0.140625 10:-0.866699 11:0.55127 13:0.5 14:-1.25 15:0.0228271 16:0.482605 17:-0.870483 18:0.09375 
-0.4048862347761681 -1 -1 -1 1:-1 2:2 3:10 4:-3 5:-5 6:-4 7:-1 8:-6 9:-0.117676 10:-0.879395 11:0.554688 12:-3.375 13:-1.125 14:-3.5625 15:0.0215454 16:0.483093 17:-0.870544 18:0.0913696 
-0.4069257024064217 -1 -1 -1 1:-44 2:-6 4:4 5:1 6:1 7:1 8:-1 9:-0.118164 10:-0.873047 11:0.553223 12:-2.6875 13:-3.125 14:-2.5 15:0.0188599 16:0.483459 17:-0.870483 18:0.0905762 
-0.4069500833345976 -1 -1 -1 1:-12 2:3 3:-24 4:-5 5:3 6:1 7:1 8:-2 9:-0.124512 10:-0.871582 11:0.552734 12:0.5625 13:0.875 14:1.25 15:0.0175171 16:0.483643 17:-0.870422 18:0.0904541 
-0.4068039982342898 -1 -1 -1 1:-2 2:-2 3:7 4:-10 5:-6 6:-6 7:-2 8:-5 9:-0.130859 10:-0.875488 11:0.557129 12:3.9375 13:1.625 14:-1.125 15:0.0163574 16:0.484009 17:-0.870239 18:0.0905151 
-0.4828928975009269 -1 -1 -1 1:4 2:2 3:4 4:-1 5:-4 7:-4 8:-1 9:-0.129395 10:-0.865723 11:0.556152 12:1 13:1.375 14:-1.6875 15:0.0177002 16:0.483826 17:-0.8703 18:0.0906982 
-0.406900257328267 -1 -1 -1 1:15 2:2 3:-2 4:-4 5:-2 7:1 8:1 9:-0.11377 10:-0.89209 11:0.547363 12:-2 13:-0.5625 14:0.8125 15:0.0164795 16:0.485718 17:-0.869141 18:0.0917969 
-0.6685486956132956 -1 -1 -1 1:-3 3:3 5:-1 6:7 7:1 8:-1 9:-0.134766 10:-0.872559 11:0.538574 12:1.5 13:0.5625 14:-0.5 15:0.0164795 16:0.484741 17:-0.86969 18:0.0918579 
-0.42164974069741 -1 -1 -1 1:-10 2:-2 3:-2 4:-3 5:-2 6:-2 7:-4 8:-2 9:-0.130371 10:-0.856934 11:0.547363 12:2.625 13:0.25 14:-0.0625 15:0.0169678 16:0.484131 17:-0.869995 18:0.092041 
-0.5168056155418148 -1 -1 -1 1:-7 2:-4 3:-1 5:-2 6:-1 7:-4 8:-5 9:-0.112793 10:-0.878906 11:0.558105 12:-1.875 13:-1.0625 14:-0.125 15:0.0161133 16:0.484131 17:-0.870056 18:0.0916138 
-0.4070161227854293 -1 -1 -1 1:-4 2:-7 3:-2 4:-1 6:-1 8:-14 9:-0.123047 10:-0.869141 11:0.544922 12:-0.875 13:-1.25 14:-1.6875 15:0.0159912 16:0.485352 17:-0.869385 18:0.0916138 
-0.4069515752231138 -1 -1 -1 1:28 2:10 3:10 4:3 5:-2 6:-5 7:-3 8:5 9:-0.118164 10:-0.884277 11:0.542969 12:0.875 13:1.3125 14:1.0625 15:0.0172119 16:0.486572 17:-0.868591 18:0.0921021 
-0.4592742497028023 -1 -1 -1 1:-3 2:-9 3:-2 4:1 5:2 6:4 7:2 8:3 9:-0.137207 10:-0.870605 11:0.543457 12:0.875 13:0.8125 14:-0.9375 15:0.0184326 16:0.486023 17:-0.868896 18:0.0919189 
-0.4015251778969232 -1 -1 -1 1:-16 2:-4 3:1 4:-3 5:-2 6:-7 7:-5 8:-3 9:-0.136719 10:-0.862793 11:0.547363 12:0.875 13:-0.4375 14:-0.3125 15:0.0183105 16:0.486328 17:-0.868713 18:0.09198 
-0.4047392576570896 -1 -1 -1 1:3 2:8 3:8 4:7 5:2 6:4 7:1 8:-1 9:-0.146973 10:-0.881348 11:0.54834 12:0.5625 13:0.1875 14:-0.5 15:0.0189819 16:0.486694 17:-0.86853 18:0.092041 
-0.4062450148871984 -1 -1 -1 1:13 2:6 3:14 4:-1 5:-2 6:-5 8:7 9:-0.138184 10:-0.857422 11:0.542969 12:2.625 13:0.625 14:-1.5625 15:0.0202026 16:0.485779 17:-0.869141 18:0.0910645 
-0.393279100420515 -1 -1 -1 1:7 4:1 5:-1 6:5 8:1 9:-0.151367 10:-0.836914 11:0.54541 12:4.5 13:0.5 14:-0.75 15:0.0231934 16:0.482666 17:-0.870789 18:0.0910034 
-0.4070131040891758 -1 -1 -1 1:35 2:11 3:-24 4:-5 5:-2 6:-1 7:-2 8:-4 9:-0.142578 10:-0.878906 11:0.557129 12:0.0625 13:0.5 14:1.625 15:0.0232544 16:0.483521 17:-0.870239 18:0.0913086 
-0.423770707108195 -1 -1 -1 1:2 2:1 3:-1 4:-3 5:-8 6:-5 7:-3 8:-5 9:-0.140137 10:-0.883789 11:0.551758 12:3.125 13:1.125 14:0.5625 15:0.0228271 16:0.483826 17:-0.869873 18:0.0934448 
-0.4074801439341078 -1 -1 -1 1:-4 2:-2 3:-14 4:-3 5:2 6:3 7:-2 8:-2 9:-0.154785 10:-0.873535 11:0.550781 12:1.25 13:0.8125 14:0.0625 15:0.0241699 16:0.48407 17:-0.869629 18:0.0942993 
-1 -1 -1 -1 1:3 2:-2 3:-1 6:1 7:-1 8:-2 9:-0.156738 10:-0.842285 11:0.55127 12:0.625 13:-1 14:-1.4375 15:0.0261841 16:0.483276 17:-0.869995 18:0.0942383 
-0.4961238187861043 -1 -1 -1 1:3 2:-3 3:-7 4:-1 5:-1 6:2 7:-1 8:-3 9:-0.150391 10:-0.864258 11:0.550781 12:2.0625 13:2.1875 14:-1.125 15:0.0255127 16:0.482239 17:-0.870544 18:0.0946655 
-0.4051563826153644 -1 -1 -1 1:-3 2:2 3:10 4:4 5:-2 6:-5 7:-5 8:-4 9:-0.140625 10:-0.867188 11:0.553223 12:-1.4375 13:-0.125 14:-0.8125 15:0.0250854 16:0.482056 17:-0.87085 18:0.0928345 
-0.4066924428794345 -1 -1 -1 1:17 2:1 3:-34 4:-11 5:-1 8:-2 9:-0.14502 10:-0.856445 11:0.547363 13:-0.9375 14:-0.25 15:0.0261841 16:0.481201 17:-0.871399 18:0.0922241 
